digraph Tree {
node [shape=box] ;
0 [label="hour <= 6.5\ngini = 0.48\nsamples = 10886\nvalue = [6530, 4356]"] ;
1 [label="hour <= 5.5\ngini = 0.007\nsamples = 3139\nvalue = [3128, 11]"] ;
0 -> 1 [labeldistance=2.5, labelangle=45, headlabel="True"] ;
2 [label="hour <= 0.5\ngini = 0.003\nsamples = 2684\nvalue = [2680, 4]"] ;
1 -> 2 ;
3 [label="gini = 0.017\nsamples = 455\nvalue = [451, 4]"] ;
2 -> 3 ;
4 [label="gini = 0.0\nsamples = 2229\nvalue = [2229, 0]"] ;
2 -> 4 ;
5 [label="atemp <= 32.955\ngini = 0.03\nsamples = 455\nvalue = [448, 7]"] ;
1 -> 5 ;
6 [label="gini = 0.018\nsamples = 431\nvalue = [427, 4]"] ;
5 -> 6 ;
7 [label="gini = 0.219\nsamples = 24\nvalue = [21, 3]"] ;
5 -> 7 ;
8 [label="temp <= 15.17\ngini = 0.493\nsamples = 7747\nvalue = [3402, 4345]"] ;
0 -> 8 [labeldistance=2.5, labelangle=-45, headlabel="False"] ;
9 [label="month <= 10.5\ngini = 0.415\nsamples = 2191\nvalue = [1547, 644]"] ;
8 -> 9 ;
10 [label="gini = 0.31\nsamples = 1475\nvalue = [1192, 283]"] ;
9 -> 10 ;
11 [label="gini = 0.5\nsamples = 716\nvalue = [355, 361]"] ;
9 -> 11 ;
12 [label="hour <= 21.5\ngini = 0.445\nsamples = 5556\nvalue = [1855, 3701]"] ;
8 -> 12 ;
13 [label="gini = 0.397\nsamples = 4948\nvalue = [1351, 3597]"] ;
12 -> 13 ;
14 [label="gini = 0.284\nsamples = 608\nvalue = [504, 104]"] ;
12 -> 14 ;
}